{
  "model_family": "baseline_linear",
  "weights": [
    -0.0015775470964081674,
    -0.019175219375248385,
    -0.021900855801479553,
    0.0006837850535911655,
    0.010166486487617948,
    0.01657128447667476,
    0.009597969151126092,
    -3.0838047876589485e-05,
    0.0030912237606921687,
    -0.0065091178006089975,
    -0.01250749190854468,
    -0.021005353276125665,
    -0.0009099716510499328,
    -0.011081847348426203,
    -0.00796320123019657,
    -0.004136122677806334,
    0.0060812926134673415,
    0.01225914472622513,
    0.004509836054225434,
    0.04722777823834544,
    0.0268918280668507,
    0.0017061842784339002,
    -0.012940626949107201,
    -0.01100686949328778,
    -0.0029931109240751022,
    -0.0035028734873199844,
    0.00023780643703862525,
    -0.02588383728609251,
    0.1253133594163455,
    0.13034504148586415,
    0.03594998670534239,
    0.002272017560321133,
    -0.00833711830963842,
    -0.0006148023403863712,
    0.0019229713118592453,
    -0.0063430011464133,
    -0.014742936694779767,
    -0.01930832965705409,
    -0.00469996524534952,
    0.20382816828390624,
    0.056720187623975814,
    -0.359977145626938,
    -0.5126113423202893,
    0.004736284107003169,
    0.30229743689800553,
    0.0725740514716815,
    -0.007770249844511285,
    -0.0005982195055955219,
    -0.007503454418161826,
    0.010474944257150348,
    0.2501091904868952,
    -0.06188984251606775,
    -1.027354806500966,
    -0.8457759867523703,
    -0.9297381704153366,
    -1.1551652208258216,
    -0.019018399803350017,
    0.5323188476748605,
    0.03974955234475121,
    -0.014324813180547805,
    0.0018674516743957636,
    0.08802328988883636,
    0.18677811032565414,
    -0.6663706083697895,
    -0.858001560027887,
    -0.3596703829679908,
    -0.9858205388038271,
    -1.2485033824003542,
    -0.7430598919981123,
    0.610749115275276,
    0.16769329473039324,
    -0.02161571008319651,
    0.006789743852848416,
    0.05121699068191522,
    -0.016789390446215715,
    -0.5607559933155781,
    -1.1009187056057799,
    -0.9821437904286505,
    -0.29596597861412044,
    -0.5906125659985001,
    -0.7007250227915127,
    0.4655962660098023,
    0.1240604591629901,
    -0.01773738465672233,
    0.011531525420812106,
    0.02877840427782694,
    -0.0679981824705961,
    -0.17733030811306158,
    -1.2037054260791145,
    -0.80097021564417,
    -0.49801592734911926,
    -1.1913386142109175,
    -0.14490489693410782,
    0.4123802226459849,
    0.04066021628410711,
    -0.01344404741008237,
    0.014768989762609482,
    0.010541066942901965,
    0.07608140313139343,
    -0.06966761679953876,
    -0.2207749285394442,
    -0.7225600577201079,
    -0.6940637457884791,
    -0.11407450770281967,
    0.20702344889209587,
    0.15114413544201738,
    0.005697296865718071,
    0.0034707479005444014,
    0.000824491246410046,
    0.001215852424450145,
    0.06905982460956006,
    0.1282649409378883,
    0.12343135196405716,
    0.1821401461744244,
    0.28259459776104,
    0.27479985067554075,
    0.050243442757028585,
    -0.006639112305702126,
    -0.009184181301587348,
    0.0011083556992979432,
    -0.001607382809930516,
    -0.0060556157913598035,
    -0.01021614384019734,
    -0.001226036218571177,
    -0.0040544099466895776,
    -0.05518461616445483,
    -0.07308589246375928,
    -0.0715094981944903,
    -0.015600150388891516,
    -0.0031690049885635474,
    0.00048009554916880753,
    7.585973055021766e-05,
    -0.003223990441545909,
    -0.010803146936534955,
    -0.01493675340688449,
    -0.01076463705731628,
    -0.016310489527611566,
    -0.010643787874245476,
    -0.004951333564020226,
    0.002013508256495781,
    0.008283092680853829,
    0.013574356840465348,
    0.0018746985388011694,
    -0.001204968664363038
  ],
  "bias": 4.738449022880602,
  "input_size": 12,
  "temperature": 0.5,
  "review_threshold": 0.37
}